<?xml version="1.0"?>
<opencv_storage>
<!-- Created using Computer Vision System Toolbox(tm) for MATLAB(R) -->
<!-- Version 8.6.0.267246 (R2015b) -->
<!-- Compatible with OpenCV 2.4 -->
<cascade>
  <stageType>BOOST</stageType>
  <featureType>HAAR</featureType>
  <height>32</height>
  <width>32</width>
  <stageParams>
    <boostType>GAB</boostType>
    <minHitRate>9.9500000476837158e-01</minHitRate>
    <maxFalseAlarm>5.0000000000000000e-01</maxFalseAlarm>
    <weightTrimRate>9.4999999999999996e-01</weightTrimRate>
    <maxDepth>1</maxDepth>
    <maxWeakCount>100</maxWeakCount></stageParams>
  <featureParams>
    <maxCatCount>0</maxCatCount>
    <featSize>1</featSize>
    <mode>BASIC</mode></featureParams>
  <stageNum>15</stageNum>
  <stages>
    <!-- stage 0 -->
    <_>
      <maxWeakCount>2</maxWeakCount>
      <stageThreshold>-1.9585570693016052e-01</stageThreshold>
      <weakClassifiers>
        <_>
          <internalNodes>
            0 -1 22 -7.2275035083293915e-02</internalNodes>
          <leafValues>
            9.4999998807907104e-01 -9.7500002384185791e-01</leafValues></_>
        <_>
          <internalNodes>
            0 -1 40 -7.9703924711793661e-04</internalNodes>
          <leafValues>
            7.7914428710937500e-01 -9.6647471189498901e-01</leafValues></_></weakClassifiers></_>
    <!-- stage 1 -->
    <_>
      <maxWeakCount>3</maxWeakCount>
      <stageThreshold>-1.1236128807067871e+00</stageThreshold>
      <weakClassifiers>
        <_>
          <internalNodes>
            0 -1 7 -1.0988534986972809e-01</internalNodes>
          <leafValues>
            8.6666667461395264e-01 -9.3333333730697632e-01</leafValues></_>
        <_>
          <internalNodes>
            0 -1 11 -1.7647078260779381e-02</internalNodes>
          <leafValues>
            9.1976261138916016e-01 -8.1542211771011353e-01</leafValues></_>
        <_>
          <internalNodes>
            0 -1 41 8.5374916670843959e-04</internalNodes>
          <leafValues>
            -9.4202280044555664e-01 6.2514257431030273e-01</leafValues></_></weakClassifiers></_>
    <!-- stage 2 -->
    <_>
      <maxWeakCount>3</maxWeakCount>
      <stageThreshold>-8.9832389354705811e-01</stageThreshold>
      <weakClassifiers>
        <_>
          <internalNodes>
            0 -1 24 3.3582378178834915e-02</internalNodes>
          <leafValues>
            -9.3305438756942749e-01 8.5123968124389648e-01</leafValues></_>
        <_>
          <internalNodes>
            0 -1 10 -3.5573191940784454e-02</internalNodes>
          <leafValues>
            8.9697629213333130e-01 -8.2846170663833618e-01</leafValues></_>
        <_>
          <internalNodes>
            0 -1 34 -6.1391945928335190e-03</internalNodes>
          <leafValues>
            8.6319220066070557e-01 -7.5717413425445557e-01</leafValues></_></weakClassifiers></_>
    <!-- stage 3 -->
    <_>
      <maxWeakCount>4</maxWeakCount>
      <stageThreshold>-1.5554875135421753e+00</stageThreshold>
      <weakClassifiers>
        <_>
          <internalNodes>
            0 -1 19 -2.9587015509605408e-02</internalNodes>
          <leafValues>
            9.3478262424468994e-01 -7.6865673065185547e-01</leafValues></_>
        <_>
          <internalNodes>
            0 -1 42 2.1828733384609222e-02</internalNodes>
          <leafValues>
            -9.2433744668960571e-01 6.2387561798095703e-01</leafValues></_>
        <_>
          <internalNodes>
            0 -1 47 -2.1956341341137886e-02</internalNodes>
          <leafValues>
            7.7334260940551758e-01 -6.4967429637908936e-01</leafValues></_>
        <_>
          <internalNodes>
            0 -1 27 -6.1351750046014786e-03</internalNodes>
          <leafValues>
            7.8718096017837524e-01 -6.3907164335250854e-01</leafValues></_></weakClassifiers></_>
    <!-- stage 4 -->
    <_>
      <maxWeakCount>3</maxWeakCount>
      <stageThreshold>-1.2022436857223511e+00</stageThreshold>
      <weakClassifiers>
        <_>
          <internalNodes>
            0 -1 39 -5.5718421936035156e-03</internalNodes>
          <leafValues>
            9.1752576828002930e-01 -7.9467678070068359e-01</leafValues></_>
        <_>
          <internalNodes>
            0 -1 8 -1.5037432312965393e-01</internalNodes>
          <leafValues>
            6.8704676628112793e-01 -8.7211745977401733e-01</leafValues></_>
        <_>
          <internalNodes>
            0 -1 30 3.1845257617533207e-03</internalNodes>
          <leafValues>
            -9.1972899436950684e-01 4.6455061435699463e-01</leafValues></_></weakClassifiers></_>
    <!-- stage 5 -->
    <_>
      <maxWeakCount>4</maxWeakCount>
      <stageThreshold>-1.7079652547836304e+00</stageThreshold>
      <weakClassifiers>
        <_>
          <internalNodes>
            0 -1 50 -1.9566207192838192e-03</internalNodes>
          <leafValues>
            8.4905660152435303e-01 -8.2677167654037476e-01</leafValues></_>
        <_>
          <internalNodes>
            0 -1 12 -6.4544081687927246e-03</internalNodes>
          <leafValues>
            7.9116833209991455e-01 -7.8425788879394531e-01</leafValues></_>
        <_>
          <internalNodes>
            0 -1 37 1.0306498035788536e-02</internalNodes>
          <leafValues>
            -6.9409924745559692e-01 7.1346288919448853e-01</leafValues></_>
        <_>
          <internalNodes>
            0 -1 20 1.1254567652940750e-03</internalNodes>
          <leafValues>
            -8.8193249702453613e-01 5.9716355800628662e-01</leafValues></_></weakClassifiers></_>
    <!-- stage 6 -->
    <_>
      <maxWeakCount>5</maxWeakCount>
      <stageThreshold>-1.0951774120330811e+00</stageThreshold>
      <weakClassifiers>
        <_>
          <internalNodes>
            0 -1 38 -3.8644522428512573e-03</internalNodes>
          <leafValues>
            7.9245281219482422e-01 -8.0314958095550537e-01</leafValues></_>
        <_>
          <internalNodes>
            0 -1 28 -8.5310131311416626e-02</internalNodes>
          <leafValues>
            6.5941995382308960e-01 -8.0643790960311890e-01</leafValues></_>
        <_>
          <internalNodes>
            0 -1 17 6.9642933085560799e-03</internalNodes>
          <leafValues>
            -9.5027238130569458e-01 4.1636586189270020e-01</leafValues></_>
        <_>
          <internalNodes>
            0 -1 49 1.7374480143189430e-02</internalNodes>
          <leafValues>
            -5.6462174654006958e-01 8.5641139745712280e-01</leafValues></_>
        <_>
          <internalNodes>
            0 -1 5 3.5630420316010714e-03</internalNodes>
          <leafValues>
            -6.3362413644790649e-01 6.6266596317291260e-01</leafValues></_></weakClassifiers></_>
    <!-- stage 7 -->
    <_>
      <maxWeakCount>3</maxWeakCount>
      <stageThreshold>-1.0580301284790039e+00</stageThreshold>
      <weakClassifiers>
        <_>
          <internalNodes>
            0 -1 46 -1.4785404317080975e-02</internalNodes>
          <leafValues>
            7.1428573131561279e-01 -8.9743590354919434e-01</leafValues></_>
        <_>
          <internalNodes>
            0 -1 9 -1.0462847538292408e-02</internalNodes>
          <leafValues>
            7.7045243978500366e-01 -6.8263149261474609e-01</leafValues></_>
        <_>
          <internalNodes>
            0 -1 32 1.9606403075158596e-03</internalNodes>
          <leafValues>
            -8.8771229982376099e-01 5.2203720808029175e-01</leafValues></_></weakClassifiers></_>
    <!-- stage 8 -->
    <_>
      <maxWeakCount>5</maxWeakCount>
      <stageThreshold>-1.4604560136795044e+00</stageThreshold>
      <weakClassifiers>
        <_>
          <internalNodes>
            0 -1 21 2.1759562194347382e-02</internalNodes>
          <leafValues>
            -7.6296293735504150e-01 9.5555555820465088e-01</leafValues></_>
        <_>
          <internalNodes>
            0 -1 48 -1.3658174313604832e-02</internalNodes>
          <leafValues>
            6.5466856956481934e-01 -7.2931349277496338e-01</leafValues></_>
        <_>
          <internalNodes>
            0 -1 15 2.4336043279618025e-03</internalNodes>
          <leafValues>
            4.1226547956466675e-01 -8.7822699546813965e-01</leafValues></_>
        <_>
          <internalNodes>
            0 -1 3 -2.8456197469495237e-04</internalNodes>
          <leafValues>
            4.9578320980072021e-01 -7.4315434694290161e-01</leafValues></_>
        <_>
          <internalNodes>
            0 -1 0 8.1004742532968521e-03</internalNodes>
          <leafValues>
            3.6270931363105774e-01 -9.9400877952575684e-01</leafValues></_></weakClassifiers></_>
    <!-- stage 9 -->
    <_>
      <maxWeakCount>3</maxWeakCount>
      <stageThreshold>-8.0706900358200073e-01</stageThreshold>
      <weakClassifiers>
        <_>
          <internalNodes>
            0 -1 25 7.6879910193383694e-03</internalNodes>
          <leafValues>
            -7.7186310291290283e-01 8.5567009449005127e-01</leafValues></_>
        <_>
          <internalNodes>
            0 -1 18 -3.0271297320723534e-02</internalNodes>
          <leafValues>
            9.1010236740112305e-01 -5.5676698684692383e-01</leafValues></_>
        <_>
          <internalNodes>
            0 -1 33 9.0085237752646208e-04</internalNodes>
          <leafValues>
            5.2156102657318115e-01 -8.7328058481216431e-01</leafValues></_></weakClassifiers></_>
    <!-- stage 10 -->
    <_>
      <maxWeakCount>5</maxWeakCount>
      <stageThreshold>-1.2744356393814087e+00</stageThreshold>
      <weakClassifiers>
        <_>
          <internalNodes>
            0 -1 44 -1.0649731382727623e-02</internalNodes>
          <leafValues>
            9.7619044780731201e-01 -7.3188406229019165e-01</leafValues></_>
        <_>
          <internalNodes>
            0 -1 43 4.7696195542812347e-03</internalNodes>
          <leafValues>
            -7.3800700902938843e-01 6.3134372234344482e-01</leafValues></_>
        <_>
          <internalNodes>
            0 -1 13 -1.6621164977550507e-03</internalNodes>
          <leafValues>
            5.1031357049942017e-01 -7.0130282640457153e-01</leafValues></_>
        <_>
          <internalNodes>
            0 -1 6 3.2781765330582857e-03</internalNodes>
          <leafValues>
            4.6051102876663208e-01 -7.8823864459991455e-01</leafValues></_>
        <_>
          <internalNodes>
            0 -1 16 7.7442271867766976e-04</internalNodes>
          <leafValues>
            -7.7536916732788086e-01 5.2642714977264404e-01</leafValues></_></weakClassifiers></_>
    <!-- stage 11 -->
    <_>
      <maxWeakCount>4</maxWeakCount>
      <stageThreshold>-5.2143162488937378e-01</stageThreshold>
      <weakClassifiers>
        <_>
          <internalNodes>
            0 -1 45 -7.5113591738045216e-03</internalNodes>
          <leafValues>
            9.5238095521926880e-01 -6.6519826650619507e-01</leafValues></_>
        <_>
          <internalNodes>
            0 -1 36 3.4219874069094658e-03</internalNodes>
          <leafValues>
            -8.7508112192153931e-01 5.1389169692993164e-01</leafValues></_>
        <_>
          <internalNodes>
            0 -1 2 -4.0684521198272705e-02</internalNodes>
          <leafValues>
            6.2248659133911133e-01 -7.5236827135086060e-01</leafValues></_>
        <_>
          <internalNodes>
            0 -1 4 -2.7835508808493614e-02</internalNodes>
          <leafValues>
            -1. 3.9636120200157166e-01</leafValues></_></weakClassifiers></_>
    <!-- stage 12 -->
    <_>
      <maxWeakCount>2</maxWeakCount>
      <stageThreshold>1.0028011351823807e-01</stageThreshold>
      <weakClassifiers>
        <_>
          <internalNodes>
            0 -1 26 -7.7829822897911072e-02</internalNodes>
          <leafValues>
            8.3870965242385864e-01 -7.5510203838348389e-01</leafValues></_>
        <_>
          <internalNodes>
            0 -1 14 9.1489031910896301e-03</internalNodes>
          <leafValues>
            -6.6814815998077393e-01 8.5538214445114136e-01</leafValues></_></weakClassifiers></_>
    <!-- stage 13 -->
    <_>
      <maxWeakCount>4</maxWeakCount>
      <stageThreshold>4.2733423411846161e-02</stageThreshold>
      <weakClassifiers>
        <_>
          <internalNodes>
            0 -1 1 5.2597606554627419e-03</internalNodes>
          <leafValues>
            8.5714286565780640e-01 -7.7777779102325439e-01</leafValues></_>
        <_>
          <internalNodes>
            0 -1 31 1.7117967363446951e-03</internalNodes>
          <leafValues>
            -7.0392489433288574e-01 8.2114756107330322e-01</leafValues></_>
        <_>
          <internalNodes>
            0 -1 35 -1.2817115057259798e-03</internalNodes>
          <leafValues>
            8.7196868658065796e-01 -6.3369792699813843e-01</leafValues></_>
        <_>
          <internalNodes>
            0 -1 29 6.0107378521934152e-04</internalNodes>
          <leafValues>
            6.5246742963790894e-01 -8.9818245172500610e-01</leafValues></_></weakClassifiers></_>
    <!-- stage 14 -->
    <_>
      <maxWeakCount>1</maxWeakCount>
      <stageThreshold>8.8976377248764038e-01</stageThreshold>
      <weakClassifiers>
        <_>
          <internalNodes>
            0 -1 23 -8.6548542603850365e-03</internalNodes>
          <leafValues>
            -1. 8.8976377248764038e-01</leafValues></_></weakClassifiers></_></stages>
  <features>
    <_>
      <rects>
        <_>
          0 5 24 9 -1.</_>
        <_>
          12 5 12 9 2.</_></rects>
      <tilted>0</tilted></_>
    <_>
      <rects>
        <_>
          0 11 20 12 -1.</_>
        <_>
          0 11 10 6 2.</_>
        <_>
          10 17 10 6 2.</_></rects>
      <tilted>0</tilted></_>
    <_>
      <rects>
        <_>
          2 3 10 26 -1.</_>
        <_>
          7 3 5 26 2.</_></rects>
      <tilted>0</tilted></_>
    <_>
      <rects>
        <_>
          2 7 28 2 -1.</_>
        <_>
          2 8 28 1 2.</_></rects>
      <tilted>0</tilted></_>
    <_>
      <rects>
        <_>
          2 11 30 6 -1.</_>
        <_>
          17 11 15 6 2.</_></rects>
      <tilted>0</tilted></_>
    <_>
      <rects>
        <_>
          2 16 6 2 -1.</_>
        <_>
          5 16 3 2 2.</_></rects>
      <tilted>0</tilted></_>
    <_>
      <rects>
        <_>
          3 11 2 18 -1.</_>
        <_>
          3 17 2 6 3.</_></rects>
      <tilted>0</tilted></_>
    <_>
      <rects>
        <_>
          4 2 25 12 -1.</_>
        <_>
          4 6 25 4 3.</_></rects>
      <tilted>0</tilted></_>
    <_>
      <rects>
        <_>
          5 0 22 15 -1.</_>
        <_>
          5 5 22 5 3.</_></rects>
      <tilted>0</tilted></_>
    <_>
      <rects>
        <_>
          5 1 10 3 -1.</_>
        <_>
          10 1 5 3 2.</_></rects>
      <tilted>0</tilted></_>
    <_>
      <rects>
        <_>
          5 4 9 26 -1.</_>
        <_>
          8 4 3 26 3.</_></rects>
      <tilted>0</tilted></_>
    <_>
      <rects>
        <_>
          5 13 6 16 -1.</_>
        <_>
          8 13 3 16 2.</_></rects>
      <tilted>0</tilted></_>
    <_>
      <rects>
        <_>
          5 19 3 6 -1.</_>
        <_>
          5 22 3 3 2.</_></rects>
      <tilted>0</tilted></_>
    <_>
      <rects>
        <_>
          5 23 8 6 -1.</_>
        <_>
          5 23 4 3 2.</_>
        <_>
          9 26 4 3 2.</_></rects>
      <tilted>0</tilted></_>
    <_>
      <rects>
        <_>
          6 10 12 5 -1.</_>
        <_>
          10 10 4 5 3.</_></rects>
      <tilted>0</tilted></_>
    <_>
      <rects>
        <_>
          6 11 13 9 -1.</_>
        <_>
          6 14 13 3 3.</_></rects>
      <tilted>0</tilted></_>
    <_>
      <rects>
        <_>
          7 1 6 8 -1.</_>
        <_>
          7 1 3 4 2.</_>
        <_>
          10 5 3 4 2.</_></rects>
      <tilted>0</tilted></_>
    <_>
      <rects>
        <_>
          7 5 5 12 -1.</_>
        <_>
          7 11 5 6 2.</_></rects>
      <tilted>0</tilted></_>
    <_>
      <rects>
        <_>
          7 11 6 9 -1.</_>
        <_>
          9 11 2 9 3.</_></rects>
      <tilted>0</tilted></_>
    <_>
      <rects>
        <_>
          7 11 6 11 -1.</_>
        <_>
          9 11 2 11 3.</_></rects>
      <tilted>0</tilted></_>
    <_>
      <rects>
        <_>
          7 14 5 6 -1.</_>
        <_>
          7 17 5 3 2.</_></rects>
      <tilted>0</tilted></_>
    <_>
      <rects>
        <_>
          9 12 6 9 -1.</_>
        <_>
          11 12 2 9 3.</_></rects>
      <tilted>0</tilted></_>
    <_>
      <rects>
        <_>
          10 0 15 15 -1.</_>
        <_>
          10 5 15 5 3.</_></rects>
      <tilted>0</tilted></_>
    <_>
      <rects>
        <_>
          10 5 12 5 -1.</_>
        <_>
          14 5 4 5 3.</_></rects>
      <tilted>0</tilted></_>
    <_>
      <rects>
        <_>
          10 6 10 12 -1.</_>
        <_>
          10 10 10 4 3.</_></rects>
      <tilted>0</tilted></_>
    <_>
      <rects>
        <_>
          10 10 10 3 -1.</_>
        <_>
          10 11 10 1 3.</_></rects>
      <tilted>0</tilted></_>
    <_>
      <rects>
        <_>
          10 17 18 15 -1.</_>
        <_>
          10 22 18 5 3.</_></rects>
      <tilted>0</tilted></_>
    <_>
      <rects>
        <_>
          11 11 4 12 -1.</_>
        <_>
          13 11 2 12 2.</_></rects>
      <tilted>0</tilted></_>
    <_>
      <rects>
        <_>
          11 14 15 14 -1.</_>
        <_>
          11 21 15 7 2.</_></rects>
      <tilted>0</tilted></_>
    <_>
      <rects>
        <_>
          11 15 8 3 -1.</_>
        <_>
          11 16 8 1 3.</_></rects>
      <tilted>0</tilted></_>
    <_>
      <rects>
        <_>
          11 19 10 3 -1.</_>
        <_>
          16 19 5 3 2.</_></rects>
      <tilted>0</tilted></_>
    <_>
      <rects>
        <_>
          12 19 12 12 -1.</_>
        <_>
          16 19 4 12 3.</_></rects>
      <tilted>0</tilted></_>
    <_>
      <rects>
        <_>
          12 27 16 3 -1.</_>
        <_>
          20 27 8 3 2.</_></rects>
      <tilted>0</tilted></_>
    <_>
      <rects>
        <_>
          14 16 8 1 -1.</_>
        <_>
          18 16 4 1 2.</_></rects>
      <tilted>0</tilted></_>
    <_>
      <rects>
        <_>
          16 0 8 6 -1.</_>
        <_>
          16 2 8 2 3.</_></rects>
      <tilted>0</tilted></_>
    <_>
      <rects>
        <_>
          16 7 2 6 -1.</_>
        <_>
          16 9 2 2 3.</_></rects>
      <tilted>0</tilted></_>
    <_>
      <rects>
        <_>
          16 23 16 3 -1.</_>
        <_>
          24 23 8 3 2.</_></rects>
      <tilted>0</tilted></_>
    <_>
      <rects>
        <_>
          17 8 4 9 -1.</_>
        <_>
          17 11 4 3 3.</_></rects>
      <tilted>0</tilted></_>
    <_>
      <rects>
        <_>
          17 12 3 6 -1.</_>
        <_>
          18 12 1 6 3.</_></rects>
      <tilted>0</tilted></_>
    <_>
      <rects>
        <_>
          17 13 3 7 -1.</_>
        <_>
          18 13 1 7 3.</_></rects>
      <tilted>0</tilted></_>
    <_>
      <rects>
        <_>
          17 19 10 2 -1.</_>
        <_>
          22 19 5 2 2.</_></rects>
      <tilted>0</tilted></_>
    <_>
      <rects>
        <_>
          19 28 8 2 -1.</_>
        <_>
          23 28 4 2 2.</_></rects>
      <tilted>0</tilted></_>
    <_>
      <rects>
        <_>
          20 9 4 18 -1.</_>
        <_>
          20 15 4 6 3.</_></rects>
      <tilted>0</tilted></_>
    <_>
      <rects>
        <_>
          21 4 8 2 -1.</_>
        <_>
          25 4 4 2 2.</_></rects>
      <tilted>0</tilted></_>
    <_>
      <rects>
        <_>
          21 8 3 13 -1.</_>
        <_>
          22 8 1 13 3.</_></rects>
      <tilted>0</tilted></_>
    <_>
      <rects>
        <_>
          21 14 3 6 -1.</_>
        <_>
          22 14 1 6 3.</_></rects>
      <tilted>0</tilted></_>
    <_>
      <rects>
        <_>
          23 18 9 6 -1.</_>
        <_>
          26 18 3 6 3.</_></rects>
      <tilted>0</tilted></_>
    <_>
      <rects>
        <_>
          24 0 2 15 -1.</_>
        <_>
          24 5 2 5 3.</_></rects>
      <tilted>0</tilted></_>
    <_>
      <rects>
        <_>
          24 6 8 8 -1.</_>
        <_>
          24 6 4 4 2.</_>
        <_>
          28 10 4 4 2.</_></rects>
      <tilted>0</tilted></_>
    <_>
      <rects>
        <_>
          24 17 6 10 -1.</_>
        <_>
          24 17 3 5 2.</_>
        <_>
          27 22 3 5 2.</_></rects>
      <tilted>0</tilted></_>
    <_>
      <rects>
        <_>
          28 7 2 6 -1.</_>
        <_>
          28 7 1 3 2.</_>
        <_>
          29 10 1 3 2.</_></rects>
      <tilted>0</tilted></_></features></cascade>
</opencv_storage>
